FANN_FLO_2.1
num_layers=4
learning_rate=0.700000
connection_rate=1.000000
network_type=0
learning_momentum=0.000000
training_algorithm=2
train_error_function=1
train_stop_function=0
cascade_output_change_fraction=0.010000
quickprop_decay=-0.000100
quickprop_mu=1.750000
rprop_increase_factor=1.200000
rprop_decrease_factor=0.500000
rprop_delta_min=0.000000
rprop_delta_max=50.000000
rprop_delta_zero=0.100000
cascade_output_stagnation_epochs=12
cascade_candidate_change_fraction=0.010000
cascade_candidate_stagnation_epochs=12
cascade_max_out_epochs=150
cascade_max_cand_epochs=150
cascade_num_candidate_groups=2
bit_fail_limit=3.49999999999999980000e-001
cascade_candidate_limit=1.00000000000000000000e+003
cascade_weight_multiplier=4.00000000000000020000e-001
cascade_activation_functions_count=10
cascade_activation_functions=3 5 7 8 10 11 14 15 16 17 
cascade_activation_steepnesses_count=4
cascade_activation_steepnesses=2.50000000000000000000e-001 5.00000000000000000000e-001 7.50000000000000000000e-001 1.00000000000000000000e+000 
layer_sizes=7 19 19 10 
scale_included=0
neurons (num_inputs, activation_function, activation_steepness)=(0, 0, 0.00000000000000000000e+000) (0, 0, 0.00000000000000000000e+000) (0, 0, 0.00000000000000000000e+000) (0, 0, 0.00000000000000000000e+000) (0, 0, 0.00000000000000000000e+000) (0, 0, 0.00000000000000000000e+000) (0, 0, 0.00000000000000000000e+000) (7, 5, 5.00000000000000000000e-001) (7, 5, 5.00000000000000000000e-001) (7, 5, 5.00000000000000000000e-001) (7, 5, 5.00000000000000000000e-001) (7, 5, 5.00000000000000000000e-001) (7, 5, 5.00000000000000000000e-001) (7, 5, 5.00000000000000000000e-001) (7, 5, 5.00000000000000000000e-001) (7, 5, 5.00000000000000000000e-001) (7, 5, 5.00000000000000000000e-001) (7, 5, 5.00000000000000000000e-001) (7, 5, 5.00000000000000000000e-001) (7, 5, 5.00000000000000000000e-001) (7, 5, 5.00000000000000000000e-001) (7, 5, 5.00000000000000000000e-001) (7, 5, 5.00000000000000000000e-001) (7, 5, 5.00000000000000000000e-001) (7, 5, 5.00000000000000000000e-001) (0, 5, 0.00000000000000000000e+000) (19, 5, 5.00000000000000000000e-001) (19, 5, 5.00000000000000000000e-001) (19, 5, 5.00000000000000000000e-001) (19, 5, 5.00000000000000000000e-001) (19, 5, 5.00000000000000000000e-001) (19, 5, 5.00000000000000000000e-001) (19, 5, 5.00000000000000000000e-001) (19, 5, 5.00000000000000000000e-001) (19, 5, 5.00000000000000000000e-001) (19, 5, 5.00000000000000000000e-001) (19, 5, 5.00000000000000000000e-001) (19, 5, 5.00000000000000000000e-001) (19, 5, 5.00000000000000000000e-001) (19, 5, 5.00000000000000000000e-001) (19, 5, 5.00000000000000000000e-001) (19, 5, 5.00000000000000000000e-001) (19, 5, 5.00000000000000000000e-001) (19, 5, 5.00000000000000000000e-001) (0, 5, 0.00000000000000000000e+000) (19, 5, 5.00000000000000000000e-001) (19, 5, 5.00000000000000000000e-001) (19, 5, 5.00000000000000000000e-001) (19, 5, 5.00000000000000000000e-001) (19, 5, 5.00000000000000000000e-001) (19, 5, 5.00000000000000000000e-001) (19, 5, 5.00000000000000000000e-001) (19, 5, 5.00000000000000000000e-001) (19, 5, 5.00000000000000000000e-001) (0, 5, 0.00000000000000000000e+000) 
connections (connected_to_neuron, weight)=(0, 5.06643385986445190000e-002) (1, 1.06656308261531710000e-003) (2, 1.40672644845299050000e-002) (3, -8.28300357397337430000e-002) (4, -9.14714955026861390000e-003) (5, -2.79493571257687330000e-002) (6, -1.46379818168139640000e-003) (0, -3.33366530251687050000e-001) (1, -5.31567303156404320000e-001) (2, -6.77188542694896920000e-001) (3, -3.82344538680698340000e-001) (4, -8.11628509213226820000e-001) (5, -9.18349738028515910000e-002) (6, -1.37654510861543980000e-001) (0, 2.88706490933234080000e-001) (1, 2.72708944523639200000e-001) (2, 5.97691474901119400000e-001) (3, 7.62221842997148790000e-001) (4, 3.46047078466570290000e-001) (5, 7.76796039230996830000e-001) (6, -1.22672433022528810000e-001) (0, 3.73278574993746230000e-001) (1, 3.16900286489578520000e-001) (2, 1.59676818810422230000e-001) (3, 2.65690729454818200000e-001) (4, 3.08737551395365020000e-001) (5, 3.66107968694840360000e-001) (6, 5.36275971204494330000e-001) (0, 9.05686810285665500000e-002) (1, 1.06980571180567280000e-001) (2, 9.39509756206675790000e-002) (3, 1.26009134628292020000e-001) (4, -1.91472688032771510000e-001) (5, 1.94166906184440050000e-001) (6, 2.89025821472184050000e+000) (0, 6.76821485218877940000e-002) (1, -4.97182498393791350000e-002) (2, 6.05640850544399350000e-002) (3, -7.05062682130432050000e-002) (4, -3.23146502078627130000e-002) (5, -3.99991400947515490000e-002) (6, 1.01105504462436220000e+000) (0, -7.22995587793404250000e-002) (1, 2.59452104087961930000e-001) (2, -1.90223183055393440000e-002) (3, 3.01638902627197000000e-001) (4, -3.32202129157588950000e-001) (5, 4.42482424874931000000e-001) (6, -2.53760717291023410000e+000) (0, 9.61596317791274250000e-002) (1, 6.58703533610496970000e-002) (2, 1.92980605636617040000e-001) (3, 3.24731690422784940000e-001) (4, -6.18081313659125780000e-001) (5, -9.56382684061563570000e-002) (6, 5.21550261725021390000e-001) (0, 2.76740640098228460000e-001) (1, 1.92896935853263120000e-001) (2, 1.24013279443958830000e-001) (3, 2.43384636771255910000e-001) (4, 2.56620719603460560000e-001) (5, 2.09726249819913470000e-001) (6, -6.64750730453242870000e+000) (0, 4.98341764396937230000e-001) (1, 2.54331691707301850000e-001) (2, -1.21098629170311320000e-001) (3, -1.49407383017068020000e-001) (4, -7.87485901341139490000e-002) (5, -3.43018169157933980000e-001) (6, -5.64524204622494200000e-001) (0, -1.00556481468306380000e-001) (1, -8.17883876360347570000e-002) (2, 5.60427790828301880000e-002) (3, 1.67993920269636050000e-002) (4, 1.39143732333055660000e-001) (5, 5.22598532436787320000e-002) (6, -4.44799855011726920000e-001) (0, 3.78575789017045540000e-002) (1, 3.79932178783081860000e-002) (2, -1.68754823639385710000e-002) (3, -1.78572739095941980000e-002) (4, 3.69505142277470330000e-002) (5, -1.06433466771807000000e-001) (6, 6.31243927933519830000e-002) (0, 4.33706974883904860000e-001) (1, 4.82514115323162960000e-001) (2, 5.05071874000712850000e-001) (3, 3.40338169359896910000e-001) (4, 3.26578296827368940000e-001) (5, 4.43753847108755370000e-001) (6, 9.01505744692922690000e-002) (0, 1.26633698264340760000e-001) (1, 1.72965408553860580000e-001) (2, -1.97360786459172070000e-001) (3, -3.14743804889496380000e-001) (4, 1.38973390496002960000e-001) (5, 1.62606423055004250000e-001) (6, 3.51985459871901050000e-001) (0, 7.98000413854754590000e-002) (1, 2.15367870186276590000e-001) (2, -7.21746109406070370000e-002) (3, 2.46196631634396590000e-001) (4, -1.84872524560782760000e-001) (5, 3.23119692156412840000e-001) (6, -1.78148191323171280000e+000) (0, 4.83281924947629230000e-001) (1, 6.19140623163941580000e-001) (2, 4.38929241456949950000e-001) (3, 5.52669414888869000000e-001) (4, 1.35876050667017510000e+000) (5, -2.34533405872732550000e+000) (6, 7.51453228541086430000e-001) (0, 2.49699996836574420000e+000) (1, -7.87404981869971280000e+000) (2, -7.82718854688558800000e+000) (3, 2.74374765036273230000e-001) (4, 1.01479241797795240000e+001) (5, 3.68896588075489750000e-001) (6, 1.11022717663930550000e+002) (0, 2.95059279947325110000e-001) (1, -1.89959773054458300000e-001) (2, -1.23509851461843870000e-001) (3, -8.80144881575684460000e-002) (4, 4.33252814897151450000e-001) (5, -3.33905469302950840000e-002) (6, -6.16271323882629440000e-002) (7, 9.13733595490612950000e-001) (8, 5.31910598275242230000e-001) (9, -4.75327265086309060000e-002) (10, 5.78674619081121940000e-001) (11, 2.28961861748413990000e-001) (12, 1.85056005144907420000e-001) (13, -3.71877327877653190000e-002) (14, -1.87909500534073040000e-001) (15, 7.19032888934615920000e-002) (16, -4.20124986924896910000e-001) (17, -4.45523020940872680000e-002) (18, 6.15993334239686830000e-001) (19, -3.45055005677466710000e-002) (20, 1.90032240028979920000e-001) (21, 7.28674413220770920000e-002) (22, -1.31633342963537100000e-001) (23, -1.18940171170569470000e-001) (24, 9.22225402788778960000e-001) (25, -1.89072378008270960000e-002) (7, 1.26264245096198220000e+000) (8, 2.06811998559757880000e-002) (9, 5.19600177372926080000e-001) (10, -5.93820079398685590000e-002) (11, 3.08568788752895560000e-001) (12, 8.71075183218776530000e-001) (13, -2.37622668003377560000e-001) (14, 8.06137071079666790000e+000) (15, 3.37749194055425030000e-001) (16, 6.97336924913480340000e+000) (17, 3.66526203272733890000e-001) (18, -1.21416252789996880000e+000) (19, 5.46425128944523890000e-001) (20, 4.56246494026580240000e-001) (21, 4.24510599694220950000e-001) (22, 4.87985441804181800000e-001) (23, 4.50428568465531860000e-001) (24, -2.30769958441842590000e-001) (25, 4.94319415277536030000e-001) (7, 5.91988527560064930000e-001) (8, 5.19024205523786920000e-001) (9, 6.67637480848595060000e-002) (10, 5.90625082966941160000e-001) (11, 1.41715476818344200000e-001) (12, -5.76717336768240110000e-001) (13, 2.26729352588403350000e-001) (14, 7.16931246648329750000e-001) (15, 1.84046921116805610000e-002) (16, 3.26812306449816130000e-001) (17, -1.75204839151374900000e-002) (18, 4.43941302646729100000e-001) (19, 2.58213646622700300000e-002) (20, 8.99598913847594610000e-001) (21, 6.17183443768716950000e-002) (22, -3.45920451856383750000e-002) (23, -6.50854926581024980000e-002) (24, 5.84113346280823010000e-001) (25, 8.68942777002984220000e-002) (7, 1.27944327032780070000e+000) (8, 4.52230567757069710000e-001) (9, -1.72500312721369790000e-002) (10, 6.28260475344543770000e-001) (11, 1.14438205788120640000e-001) (12, 1.40764077674015200000e+001) (13, 2.15336091166591150000e-002) (14, 8.93820959599609060000e-001) (15, 2.12587997949654860000e-001) (16, -2.47871704092714930000e+000) (17, -2.13972682562648940000e+000) (18, 4.53722692942538600000e+000) (19, 4.65500185066826670000e-002) (20, 3.67433289403938450000e+000) (21, 1.37124253889072870000e-001) (22, 1.31126770079738690000e-001) (23, -4.60204298527238790000e-002) (24, 4.50804744486988600000e-001) (25, 6.56296086347403630000e-002) (7, 7.21125728092328560000e-001) (8, -3.84828906395240440000e-002) (9, -4.74397621815607420000e-002) (10, 6.10137395005541430000e-001) (11, -3.75115677349879670000e-004) (12, 8.98387853288626470000e-001) (13, 1.45061473667836030000e-001) (14, 7.84114990254150990000e-001) (15, 2.16427575495648010000e-001) (16, 2.46258323223530420000e-001) (17, 2.81431757559635720000e-002) (18, 6.86358310697292250000e-001) (19, -1.56772039201362930000e-001) (20, -1.10492771633683780000e+000) (21, -2.33312345941907830000e-002) (22, -1.87291472710062020000e-001) (23, -1.56350730813178580000e-002) (24, 5.67412236749935570000e-001) (25, -5.34395181303399660000e-002) (7, 7.98006401918607610000e-001) (8, 6.14876979538750650000e-001) (9, 1.95092885996751010000e-001) (10, 4.62181263796958170000e-001) (11, 6.86824416465605940000e-002) (12, -7.42919332254099870000e-002) (13, 1.14026636576112780000e+000) (14, 2.07736908017467760000e+000) (15, 1.94523158294990760000e-001) (16, -4.88599339280094070000e-002) (17, -2.66162016542557670000e-001) (18, -7.32435883473502700000e+000) (19, 9.58337649704327500000e-002) (20, 5.48103027830186050000e-001) (21, 3.86052933393102320000e-002) (22, 7.05620624364360770000e-002) (23, -8.33522309008912080000e-002) (24, 4.78454365541409910000e-001) (25, 4.27613407580844790000e-002) (7, 2.45429972609361840000e-001) (8, 2.18486822534770560000e-001) (9, 3.79929384297204080000e-001) (10, -2.00832233148185600000e-001) (11, 2.09662922581095980000e-001) (12, 1.15854508540494920000e+001) (13, 9.21649412598693620000e-002) (14, 8.47451527218089850000e+000) (15, -6.37362037362007140000e-001) (16, -7.98469054963082630000e-001) (17, 2.22303907993599350000e+001) (18, 4.13132471349927940000e+000) (19, 4.02213320176135590000e-001) (20, -2.44865767975328730000e+000) (21, 2.83918971323339260000e-001) (22, 2.21149037204869090000e-001) (23, 2.55041053048707720000e-001) (24, -2.93507483955622040000e-001) (25, 3.02433045251793710000e-001) (7, 9.76922744521862700000e-002) (8, 1.08019461733560870000e+000) (9, -1.69666254097923190000e-001) (10, -7.68805557364061640000e-001) (11, -2.68650152610174160000e-001) (12, -2.34654997152058840000e+000) (13, 3.70456665677369040000e-002) (14, -1.57885773957940590000e+000) (15, -3.27012359142657640000e-001) (16, 1.04696198801418380000e+000) (17, 3.48982612760536330000e-001) (18, -1.25279438025227530000e+001) (19, -2.40961421175905850000e-001) (20, 2.44696711292702360000e+000) (21, -3.11247738581059970000e-001) (22, -1.84145761978167900000e-001) (23, -2.36773619806221220000e-001) (24, -7.61710749918750870000e-001) (25, -2.56610835471597190000e-001) (7, -8.45568125416082170000e-001) (8, 1.10183061415827880000e+000) (9, -3.79088046293294400000e-001) (10, 2.93129594734426790000e-001) (11, -4.13250425963834100000e-001) (12, -4.37736524442018940000e-001) (13, 4.25985849114926600000e-001) (14, 1.34768487810052280000e+000) (15, -3.13390497442617540000e-001) (16, -1.64826192747731050000e+000) (17, 8.76179447586432760000e+000) (18, -6.67667452709451830000e-001) (19, -3.94450595350339220000e-001) (20, -2.22968992679656000000e-001) (21, -3.35861845450872280000e-001) (22, -4.37885872685715990000e-001) (23, -3.86546962183175410000e-001) (24, 1.38082132237242030000e-001) (25, -3.88957431205984690000e-001) (7, 3.38094172146358510000e-001) (8, 3.65671860235714300000e-001) (9, 2.31652096421867320000e-001) (10, -5.14158247309173260000e-001) (11, -1.07496704981096760000e-001) (12, 5.67330889341840730000e-001) (13, -6.10074284015145600000e-002) (14, 1.92097428129044980000e-001) (15, -2.60965548106231960000e-001) (16, 1.53369646325810520000e+000) (17, 1.25106966658746770000e-001) (18, 1.69776995151173140000e-001) (19, 2.28350094419538660000e-001) (20, 9.49489644809655920000e-001) (21, -1.04165389863057040000e-001) (22, 1.87673250759419350000e-001) (23, 1.09333895724569160000e-001) (24, -6.92030844317335750000e-001) (25, 1.86504390670989090000e-001) (7, 7.16234108539946960000e-001) (8, 7.12300181558391950000e-002) (9, 6.27389595258114770000e-001) (10, 1.03832688060593870000e+000) (11, 5.28959148383380430000e-001) (12, 1.00853768350229460000e+002) (13, 4.25799270505018650000e-001) (14, 8.05628965180422150000e-001) (15, 2.08047121274422740000e-001) (16, -3.38740135071757640000e+000) (17, 1.32828952657201400000e-001) (18, -1.24916435291041610000e+002) (19, 6.66604683733090340000e-001) (20, 4.16013593897274050000e-001) (21, 2.64855609959482600000e-001) (22, 5.18056174687349100000e-001) (23, 5.56830690722229460000e-001) (24, 8.58943625834781010000e-001) (25, 7.05710050303369090000e-001) (7, 6.80774383531326350000e-001) (8, -2.34162033696997530000e-002) (9, 2.29985567459787510000e-002) (10, 4.00730139168998360000e-001) (11, -1.47458812407433580000e-001) (12, 7.42830662368398810000e+000) (13, 3.45773303693946600000e-001) (14, -1.23712363538276330000e+000) (15, 1.96646523899591840000e-001) (16, 7.42910317991824170000e-001) (17, 9.99949531547118630000e-001) (18, 5.73108222527708770000e-001) (19, 4.88186552104739490000e-001) (20, 1.72939614692311940000e+000) (21, -3.26467267717663660000e-001) (22, 2.18384682369805100000e-001) (23, -1.45951710825094420000e-001) (24, 3.67950918122406380000e-001) (25, -1.43386102669998180000e-001) (7, 4.47196859648907760000e-001) (8, 6.53020432449253120000e-001) (9, 2.06706615272345580000e-002) (10, 4.08471985760639700000e-001) (11, -6.14059310921395150000e-002) (12, 2.56825059051081940000e-001) (13, 5.93781782477477480000e-001) (14, 7.40030398219439060000e-001) (15, -1.89902364838460960000e-001) (16, 2.01300811955490120000e+000) (17, 3.89977115325248040000e-001) (18, 5.78863994397667560000e-001) (19, -6.71589296252843300000e-002) (20, 4.02696020586720380000e-001) (21, 3.16479717417236730000e-002) (22, -1.05996750847094480000e-001) (23, -4.33750233976347640000e-002) (24, 4.29457871110769440000e-001) (25, 2.25810619463262040000e-002) (7, 2.20573093086093410000e+000) (8, 6.30398205296766820000e-001) (9, -5.42962565581961710000e-002) (10, 6.57815813550914670000e-001) (11, 1.07459955394648140000e-001) (12, 2.60829830818198170000e+000) (13, 2.87738291171254100000e-001) (14, 1.17940603642110560000e+000) (15, 1.35015298990468020000e+000) (16, 1.86732215990568530000e-002) (17, -3.86214836473591450000e-001) (18, 2.44087637691076470000e+001) (19, 2.40728852345949980000e-002) (20, 2.64556382260073440000e-001) (21, 1.50390095829654320000e-001) (22, 8.22758577010311160000e-002) (23, 3.89753991903977470000e-002) (24, 1.00156376686882620000e+000) (25, -5.49066081297911180000e-002) (7, -1.99811187045164930000e-001) (8, 1.70102818549135450000e-001) (9, 3.51561710963158250000e-001) (10, -2.98917057446315030000e-001) (11, 3.41653366103785720000e-001) (12, 3.75500061647553360000e+000) (13, -5.99072260841675420000e-001) (14, 8.15162153301333350000e-001) (15, 1.50205377116043900000e-001) (16, 1.67038520292846400000e+000) (17, 6.16180422358939550000e-001) (18, -2.07326648573913250000e-001) (19, 3.87145207587143770000e-001) (20, 4.07667893184667340000e-001) (21, 2.56075343760765790000e-001) (22, 3.68207562096489920000e-001) (23, 3.73529558081059030000e-001) (24, -2.74617451828380880000e-001) (25, 2.73929499680454160000e-001) (7, 4.70273305707609720000e-001) (8, 6.13887477788736310000e-001) (9, 1.09053834865928660000e-001) (10, -6.10536569476873740000e-001) (11, -1.60233693898396340000e-001) (12, -4.61045153972062140000e+000) (13, -6.90873643133517180000e-002) (14, -4.02066840842613440000e+000) (15, 1.44869017787608500000e-001) (16, 2.38398222817995720000e+000) (17, 1.59913043316621680000e+000) (18, 1.02449707165365500000e+001) (19, 1.36458620430541830000e-001) (20, 6.33323769696820470000e-001) (21, -2.16339507455719250000e-001) (22, 1.08166330185644980000e-001) (23, 3.23943538833748880000e-001) (24, 2.24078091790840400000e-001) (25, 9.44359147262301410000e-002) (7, 3.07636209973238640000e+000) (8, 4.94565150384640000000e-001) (9, -1.85479831161025930000e-002) (10, 4.70679209137204730000e-001) (11, 5.39395124595219220000e-002) (12, 1.43884412790908300000e-001) (13, 8.79835097069125440000e-001) (14, 8.47459340541201760000e-001) (15, 4.97363077989313800000e-002) (16, -3.04617487086791370000e-001) (17, -2.03652696307055180000e-001) (18, 4.73269728086469170000e-001) (19, -7.13273464226097390000e-002) (20, 9.91465399296894030000e-001) (21, 1.53815644864613470000e-001) (22, -9.65421629162070970000e-002) (23, -7.23347763239422650000e-002) (24, 5.37205037618869620000e-001) (25, -7.02569682616337450000e-002) (7, 1.44549155110420860000e+000) (8, 5.89570793693879880000e-001) (9, -3.12831093098547290000e-002) (10, 6.07000322772046190000e-001) (11, 7.01276429506032030000e-003) (12, -1.66928233622863580000e+000) (13, 6.39926465058454740000e-001) (14, 2.89447239557654430000e+000) (15, -8.09658791594171760000e-001) (16, 3.34050909071020360000e-001) (17, -1.04573384950327370000e+000) (18, -1.79769178045900590000e+001) (19, -1.92535917608240950000e-002) (20, 2.17360455192475580000e+000) (21, 2.09362289517989770000e-001) (22, -3.02579819768249710000e-002) (23, 1.35861634304920880000e-001) (24, 5.78336551973261060000e-001) (25, 3.30169168305672400000e-002) (26, 1.20067746821803460000e+000) (27, 2.93240132667339840000e-001) (28, 8.75745284792711850000e-001) (29, -9.33021451880675650000e-001) (30, 1.59461648243702590000e+000) (31, -1.89206661735262240000e-001) (32, 2.82400165039839620000e-002) (33, 5.65038910087235170000e-001) (34, 1.87770204467821110000e+000) (35, 4.02075224463816560000e+000) (36, 4.03931552383179740000e-001) (37, 5.49792921001577170000e-001) (38, -4.74862458625966100000e-001) (39, 8.05998814911591310000e-001) (40, 3.65894144952596980000e-001) (41, 9.07264428061335120000e-001) (42, -1.33486112206873010000e-001) (43, 1.46848439360582690000e+000) (44, 5.71047170001240720000e-001) (26, 5.95389519898471110000e-001) (27, 1.98902235477462410000e-001) (28, 3.81432525688948030000e-001) (29, 3.10673472241933150000e-001) (30, 2.29916514260317730000e-001) (31, -3.79603773057339560000e-001) (32, 8.05621099039745880000e-001) (33, 3.23667006327459930000e-001) (34, 1.79830986419079000000e+000) (35, 3.54714013486046300000e+000) (36, -5.11911623513938150000e-002) (37, -3.01128819988705660000e-001) (38, 6.63601886824235600000e-001) (39, -9.65778036809402330000e-001) (40, 1.00809110035389860000e+000) (41, 9.63307120417067790000e-001) (42, -1.65026148636788950000e+000) (43, 2.80258002963597540000e-001) (44, 5.64382967790701630000e-001) (26, -1.21729092012692620000e+000) (27, -1.03920449430233430000e-001) (28, 1.68655498984175420000e+000) (29, -1.80028780667934600000e-001) (30, 6.68526482648174820000e-001) (31, -4.07051793329347820000e-001) (32, 4.74137333395351410000e-001) (33, -8.37158950611245070000e-002) (34, 9.35429246879493580000e-001) (35, 1.21651057189672040000e+000) (36, 2.42557881344797780000e-002) (37, 1.07749499050652430000e+000) (38, 3.79557288618649350000e-001) (39, -8.25068913231204680000e-001) (40, 2.88104283887522550000e-002) (41, 1.01903944992805060000e+000) (42, -1.27762431989507340000e+000) (43, -1.40982667960573740000e-001) (44, 3.41386674334505700000e-001) (26, -6.58863078120707430000e-001) (27, 1.55399763581979210000e-001) (28, 4.91046411308735500000e-001) (29, 1.16964282910339330000e-001) (30, 1.01470368335979530000e-002) (31, -5.08911677633258840000e-001) (32, 6.44380090160761480000e-001) (33, 1.98997466480425600000e-001) (34, 1.51105493271259060000e+000) (35, 2.09820727747879590000e+000) (36, 2.83462493906589840000e-001) (37, 5.05836465330469890000e-001) (38, 1.32884504703153050000e+000) (39, -8.67860818026963800000e-001) (40, 3.81592843823949980000e-001) (41, 6.25588340139560110000e-001) (42, -1.78723762178484940000e+000) (43, -4.09154247692165800000e-001) (44, 6.94034182366087940000e-001) (26, -1.37056485084411210000e-001) (27, 9.95105217274819600000e-001) (28, 1.11394272365070910000e-001) (29, -1.36263262517893000000e-001) (30, 6.84877281652462310000e-002) (31, -4.28978139270270340000e-001) (32, 4.93405711178893420000e-001) (33, 5.54835725178836170000e-001) (34, 1.33344836774384360000e+000) (35, 2.13488341652571600000e+000) (36, 8.68907909798551650000e-002) (37, 3.22647747757363550000e-001) (38, 7.39698218087560640000e-001) (39, -4.18452307818247050000e-001) (40, 2.08883600105952920000e-001) (41, 8.33434236371833450000e-001) (42, -1.35405314370046080000e+000) (43, 4.83382048299587640000e-002) (44, 7.57070966156148660000e-001) (26, -4.56862114747231910000e+000) (27, -1.32075700780229180000e-001) (28, 3.86431173759380010000e+000) (29, 6.12858086318141120000e-002) (30, -1.30591051097889510000e+000) (31, -4.01878640807541210000e-001) (32, -3.96492177044188990000e-002) (33, -2.01937749566963980000e-001) (34, 1.11589239498280750000e+000) (35, 1.54404114727137330000e+000) (36, -9.86653937761808490000e-003) (37, 6.24080652559097160000e-002) (38, 2.63514941345335040000e-001) (39, -3.28394266945898520000e-001) (40, 2.47918069964311680000e-001) (41, -2.26757183222288300000e-001) (42, -1.09734766794512350000e+000) (43, -2.56143831073974480000e-001) (44, 6.01321889581722060000e-001) (26, 5.98894607232838380000e-001) (27, 4.91722682799139050000e-001) (28, -2.36524871594403020000e-001) (29, -2.95173464456589600000e-001) (30, -1.34315556992743710000e+000) (31, 6.19005932949347470000e-001) (32, 7.86970430991623250000e-002) (33, 1.88623379906914760000e+000) (34, 8.61040140707058480000e-001) (35, 4.07645500112244040000e-001) (36, 2.98533719563595530000e-001) (37, 1.60437622575948620000e-002) (38, 9.86596021361949150000e-002) (39, 1.04801979689614160000e+000) (40, 4.24752919927871840000e-001) (41, -8.15530271167812070000e-001) (42, -8.66420980558571090000e-001) (43, -3.66161800869886200000e-001) (44, 9.34804491029418540000e-001) (26, 1.64298333263189940000e+000) (27, 6.53187712635885380000e-001) (28, 6.87439518806731040000e-001) (29, -9.47992589407926190000e-001) (30, 1.20829115940884500000e+000) (31, 1.32721158421548550000e+000) (32, -2.14232154315884490000e-001) (33, 4.61089555395533090000e-001) (34, 1.07607911296461970000e+000) (35, 1.29712568870056780000e+000) (36, 1.17267324111674860000e-001) (37, -1.45521461564669300000e-001) (38, 1.06206047210295760000e-001) (39, 2.40858146099809740000e-001) (40, 4.23393965758712190000e-001) (41, 1.91030340746470100000e-001) (42, -3.75807466160077790000e+000) (43, -1.38273616744297450000e-001) (44, 7.80286428182035750000e-001) (26, 4.31099135396416750000e-001) (27, 3.87565818560867300000e-001) (28, 8.06426241628653620000e-001) (29, 8.17124190139377760000e-002) (30, -2.22880438730738420000e+000) (31, 7.25218293411937660000e-001) (32, 4.02714400645127310000e-001) (33, 1.08192243098993670000e+000) (34, 1.81489714905258450000e+000) (35, 1.66940501435640430000e+000) (36, -1.37062559128027170000e-001) (37, 3.10526593403869480000e-002) (38, 8.59573210893152080000e-001) (39, 6.62503456545828320000e-001) (40, 2.85864727762680630000e-001) (41, -1.17633359876789840000e+000) (42, -2.26461704614141320000e+000) (43, -3.09945590747034540000e-001) (44, 5.21895824675444150000e-001) 
